Language model created by QuickLM on Fri Mar 23 20:16:36 EDT 2018
Copyright (c) 1996-2010 Carnegie Mellon University and Alexander I. Rudnicky

The model is in standard ARPA format, designed by Doug Paul while he was at MITRE.

The code that was used to produce this language model is available in Open Source.
Please visit http://www.speech.cs.cmu.edu/tools/ for more information

The (fixed) discount mass is 0.5. The backoffs are computed using the ratio method.
This model based on a corpus of 21 sentences and 27 words

\data\
ngram 1=27
ngram 2=46
ngram 3=46

\1-grams:
-1.0860 </s> -0.3010
-1.0860 <s> -0.2639
-1.0860 A -0.2620
-2.1072 BOTTLE -0.2639
-2.4082 BOWL -0.2639
-2.4082 BOX -0.2639
-1.0860 BRING -0.2639
-2.4082 CAN -0.2639
-2.4082 CARTON -0.2639
-2.4082 CONTAINER -0.2639
-2.4082 CUP -0.2639
-2.4082 DRILL -0.2639
-2.4082 FUNNEL -0.2639
-2.4082 GLASS -0.2639
-2.4082 JAR -0.2639
-2.4082 JUG -0.2639
-1.0860 ME -0.2639
-2.4082 MUG -0.2639
-2.4082 PITCHER -0.2639
-2.4082 PLATE -0.2639
-2.4082 SAUCER -0.2639
-2.4082 SPORTS -0.2993
-2.4082 TOOL -0.2639
-2.4082 TOY -0.2639
-2.4082 TUB -0.2639
-2.4082 TUMBLER -0.2639
-2.4082 WATER -0.2976

\2-grams:
-0.3010 <s> BRING 0.0000
-1.6232 A BOTTLE 0.0000
-1.6232 A BOWL 0.0000
-1.6232 A BOX 0.0000
-1.6232 A CAN 0.0000
-1.6232 A CARTON 0.0000
-1.6232 A CONTAINER 0.0000
-1.6232 A CUP 0.0000
-1.6232 A DRILL 0.0000
-1.6232 A FUNNEL 0.0000
-1.6232 A GLASS 0.0000
-1.6232 A JAR 0.0000
-1.6232 A JUG 0.0000
-1.6232 A MUG 0.0000
-1.6232 A PITCHER 0.0000
-1.6232 A PLATE 0.0000
-1.6232 A SAUCER 0.0000
-1.6232 A SPORTS 0.0000
-1.6232 A TOOL 0.0000
-1.6232 A TOY 0.0000
-1.6232 A TUB 0.0000
-1.6232 A TUMBLER 0.0000
-0.3010 BOTTLE </s> -0.3010
-0.3010 BOWL </s> -0.3010
-0.3010 BOX </s> -0.3010
-0.3010 BRING ME 0.0000
-0.3010 CAN </s> -0.3010
-0.3010 CARTON </s> -0.3010
-0.3010 CONTAINER </s> -0.3010
-0.3010 CUP </s> -0.3010
-0.3010 DRILL </s> -0.3010
-0.3010 FUNNEL </s> -0.3010
-0.3010 GLASS </s> -0.3010
-0.3010 JAR </s> -0.3010
-0.3010 JUG </s> -0.3010
-0.3010 ME A 0.0000
-0.3010 MUG </s> -0.3010
-0.3010 PITCHER </s> -0.3010
-0.3010 PLATE </s> -0.3010
-0.3010 SAUCER </s> -0.3010
-0.3010 SPORTS WATER 0.0000
-0.3010 TOOL </s> -0.3010
-0.3010 TOY </s> -0.3010
-0.3010 TUB </s> -0.3010
-0.3010 TUMBLER </s> -0.3010
-0.3010 WATER BOTTLE 0.0000

\3-grams:
-0.3010 <s> BRING ME
-0.3010 A BOTTLE </s>
-0.3010 A BOWL </s>
-0.3010 A BOX </s>
-0.3010 A CAN </s>
-0.3010 A CARTON </s>
-0.3010 A CONTAINER </s>
-0.3010 A CUP </s>
-0.3010 A DRILL </s>
-0.3010 A FUNNEL </s>
-0.3010 A GLASS </s>
-0.3010 A JAR </s>
-0.3010 A JUG </s>
-0.3010 A MUG </s>
-0.3010 A PITCHER </s>
-0.3010 A PLATE </s>
-0.3010 A SAUCER </s>
-0.3010 A SPORTS WATER
-0.3010 A TOOL </s>
-0.3010 A TOY </s>
-0.3010 A TUB </s>
-0.3010 A TUMBLER </s>
-0.3010 BRING ME A
-1.6232 ME A BOTTLE
-1.6232 ME A BOWL
-1.6232 ME A BOX
-1.6232 ME A CAN
-1.6232 ME A CARTON
-1.6232 ME A CONTAINER
-1.6232 ME A CUP
-1.6232 ME A DRILL
-1.6232 ME A FUNNEL
-1.6232 ME A GLASS
-1.6232 ME A JAR
-1.6232 ME A JUG
-1.6232 ME A MUG
-1.6232 ME A PITCHER
-1.6232 ME A PLATE
-1.6232 ME A SAUCER
-1.6232 ME A SPORTS
-1.6232 ME A TOOL
-1.6232 ME A TOY
-1.6232 ME A TUB
-1.6232 ME A TUMBLER
-0.3010 SPORTS WATER BOTTLE
-0.3010 WATER BOTTLE </s>

\end\
